digraph Tree {
node [shape=box, style="filled, rounded", color="black", fontname="helvetica"] ;
edge [fontname="helvetica"] ;
0 [label="total sulfur dioxide <= 66.5\ngini = 0.371\nsamples = 4872\nvalue = [3673, 1199]\nclass = White", fillcolor="#edaa7a"] ;
1 [label="chlorides <= 0.046\ngini = 0.173\nsamples = 1044\nvalue = [100, 944]\nclass = Red", fillcolor="#4ea7e8"] ;
0 -> 1 [labeldistance=2.5, labelangle=45, headlabel="True"] ;
2 [label="sulphates <= 0.555\ngini = 0.211\nsamples = 100\nvalue = [88, 12]\nclass = White", fillcolor="#e99254"] ;
1 -> 2 ;
3 [label="volatile acidity <= 0.662\ngini = 0.027\nsamples = 74\nvalue = [73, 1]\nclass = White", fillcolor="#e5833c"] ;
2 -> 3 ;
4 [label="gini = 0.0\nsamples = 71\nvalue = [71, 0]\nclass = White", fillcolor="#e58139"] ;
3 -> 4 ;
5 [label="density <= 0.994\ngini = 0.444\nsamples = 3\nvalue = [2, 1]\nclass = White", fillcolor="#f2c09c"] ;
3 -> 5 ;
6 [label="gini = 0.0\nsamples = 2\nvalue = [2, 0]\nclass = White", fillcolor="#e58139"] ;
5 -> 6 ;
7 [label="gini = 0.0\nsamples = 1\nvalue = [0, 1]\nclass = Red", fillcolor="#399de5"] ;
5 -> 7 ;
8 [label="density <= 0.993\ngini = 0.488\nsamples = 26\nvalue = [15.0, 11.0]\nclass = White", fillcolor="#f8ddca"] ;
2 -> 8 ;
9 [label="volatile acidity <= 0.44\ngini = 0.219\nsamples = 16\nvalue = [14, 2]\nclass = White", fillcolor="#e99355"] ;
8 -> 9 ;
10 [label="gini = 0.0\nsamples = 14\nvalue = [14, 0]\nclass = White", fillcolor="#e58139"] ;
9 -> 10 ;
11 [label="gini = 0.0\nsamples = 2\nvalue = [0, 2]\nclass = Red", fillcolor="#399de5"] ;
9 -> 11 ;
12 [label="alcohol <= 10.6\ngini = 0.18\nsamples = 10\nvalue = [1, 9]\nclass = Red", fillcolor="#4fa8e8"] ;
8 -> 12 ;
13 [label="gini = 0.0\nsamples = 1\nvalue = [1, 0]\nclass = White", fillcolor="#e58139"] ;
12 -> 13 ;
14 [label="gini = 0.0\nsamples = 9\nvalue = [0, 9]\nclass = Red", fillcolor="#399de5"] ;
12 -> 14 ;
15 [label="sulphates <= 0.41\ngini = 0.025\nsamples = 944\nvalue = [12, 932]\nclass = Red", fillcolor="#3c9ee5"] ;
1 -> 15 ;
16 [label="chlorides <= 0.055\ngini = 0.498\nsamples = 15\nvalue = [7, 8]\nclass = Red", fillcolor="#e6f3fc"] ;
15 -> 16 ;
17 [label="gini = 0.0\nsamples = 7\nvalue = [7, 0]\nclass = White", fillcolor="#e58139"] ;
16 -> 17 ;
18 [label="gini = 0.0\nsamples = 8\nvalue = [0, 8]\nclass = Red", fillcolor="#399de5"] ;
16 -> 18 ;
19 [label="density <= 0.993\ngini = 0.011\nsamples = 929\nvalue = [5, 924]\nclass = Red", fillcolor="#3a9ee5"] ;
15 -> 19 ;
20 [label="citric acid <= 0.295\ngini = 0.444\nsamples = 12\nvalue = [4, 8]\nclass = Red", fillcolor="#9ccef2"] ;
19 -> 20 ;
21 [label="gini = 0.0\nsamples = 8\nvalue = [0, 8]\nclass = Red", fillcolor="#399de5"] ;
20 -> 21 ;
22 [label="gini = 0.0\nsamples = 4\nvalue = [4, 0]\nclass = White", fillcolor="#e58139"] ;
20 -> 22 ;
23 [label="chlorides <= 0.051\ngini = 0.002\nsamples = 917\nvalue = [1, 916]\nclass = Red", fillcolor="#399de5"] ;
19 -> 23 ;
24 [label="total sulfur dioxide <= 64.5\ngini = 0.142\nsamples = 13\nvalue = [1, 12]\nclass = Red", fillcolor="#49a5e7"] ;
23 -> 24 ;
25 [label="gini = 0.0\nsamples = 12\nvalue = [0, 12]\nclass = Red", fillcolor="#399de5"] ;
24 -> 25 ;
26 [label="gini = 0.0\nsamples = 1\nvalue = [1, 0]\nclass = White", fillcolor="#e58139"] ;
24 -> 26 ;
27 [label="gini = 0.0\nsamples = 904\nvalue = [0, 904]\nclass = Red", fillcolor="#399de5"] ;
23 -> 27 ;
28 [label="chlorides <= 0.069\ngini = 0.124\nsamples = 3828\nvalue = [3573, 255]\nclass = White", fillcolor="#e78a47"] ;
0 -> 28 [labeldistance=2.5, labelangle=-45, headlabel="False"] ;
29 [label="volatile acidity <= 0.575\ngini = 0.02\nsamples = 3455\nvalue = [3420, 35]\nclass = White", fillcolor="#e5823b"] ;
28 -> 29 ;
30 [label="chlorides <= 0.013\ngini = 0.013\nsamples = 3390\nvalue = [3367, 23]\nclass = White", fillcolor="#e5823a"] ;
29 -> 30 ;
31 [label="gini = 0.444\nsamples = 3\nvalue = [1, 2]\nclass = Red", fillcolor="#9ccef2"] ;
30 -> 31 ;
32 [label="sulphates <= 0.805\ngini = 0.012\nsamples = 3387\nvalue = [3366, 21]\nclass = White", fillcolor="#e5823a"] ;
30 -> 32 ;
33 [label="chlorides <= 0.059\ngini = 0.008\nsamples = 3336\nvalue = [3322, 14]\nclass = White", fillcolor="#e5823a"] ;
32 -> 33 ;
34 [label="total sulfur dioxide <= 275.0\ngini = 0.004\nsamples = 3192\nvalue = [3185, 7]\nclass = White", fillcolor="#e58139"] ;
33 -> 34 ;
35 [label="citric acid <= 0.095\ngini = 0.004\nsamples = 3186\nvalue = [3180, 6]\nclass = White", fillcolor="#e58139"] ;
34 -> 35 ;
36 [label="pH <= 3.5\ngini = 0.102\nsamples = 37\nvalue = [35, 2]\nclass = White", fillcolor="#e68844"] ;
35 -> 36 ;
37 [label="gini = 0.0\nsamples = 35\nvalue = [35, 0]\nclass = White", fillcolor="#e58139"] ;
36 -> 37 ;
38 [label="gini = 0.0\nsamples = 2\nvalue = [0, 2]\nclass = Red", fillcolor="#399de5"] ;
36 -> 38 ;
39 [label="residual sugar <= 0.925\ngini = 0.003\nsamples = 3149\nvalue = [3145, 4]\nclass = White", fillcolor="#e58139"] ;
35 -> 39 ;
40 [label="pH <= 2.905\ngini = 0.105\nsamples = 36\nvalue = [34, 2]\nclass = White", fillcolor="#e78845"] ;
39 -> 40 ;
41 [label="gini = 0.0\nsamples = 2\nvalue = [0, 2]\nclass = Red", fillcolor="#399de5"] ;
40 -> 41 ;
42 [label="gini = 0.0\nsamples = 34\nvalue = [34, 0]\nclass = White", fillcolor="#e58139"] ;
40 -> 42 ;
43 [label="free sulfur dioxide <= 6.5\ngini = 0.001\nsamples = 3113\nvalue = [3111, 2]\nclass = White", fillcolor="#e58139"] ;
39 -> 43 ;
44 [label="residual sugar <= 11.95\ngini = 0.074\nsamples = 26\nvalue = [25, 1]\nclass = White", fillcolor="#e68641"] ;
43 -> 44 ;
45 [label="gini = 0.0\nsamples = 24\nvalue = [24, 0]\nclass = White", fillcolor="#e58139"] ;
44 -> 45 ;
46 [label="pH <= 3.12\ngini = 0.5\nsamples = 2\nvalue = [1, 1]\nclass = White", fillcolor="#ffffff"] ;
44 -> 46 ;
47 [label="gini = 0.0\nsamples = 1\nvalue = [1, 0]\nclass = White", fillcolor="#e58139"] ;
46 -> 47 ;
48 [label="gini = 0.0\nsamples = 1\nvalue = [0, 1]\nclass = Red", fillcolor="#399de5"] ;
46 -> 48 ;
49 [label="pH <= 3.435\ngini = 0.001\nsamples = 3087\nvalue = [3086, 1]\nclass = White", fillcolor="#e58139"] ;
43 -> 49 ;
50 [label="gini = 0.0\nsamples = 2895\nvalue = [2895, 0]\nclass = White", fillcolor="#e58139"] ;
49 -> 50 ;
51 [label="pH <= 3.445\ngini = 0.01\nsamples = 192\nvalue = [191, 1]\nclass = White", fillcolor="#e5823a"] ;
49 -> 51 ;
52 [label="total sulfur dioxide <= 92.0\ngini = 0.117\nsamples = 16\nvalue = [15, 1]\nclass = White", fillcolor="#e78946"] ;
51 -> 52 ;
53 [label="gini = 0.0\nsamples = 1\nvalue = [0, 1]\nclass = Red", fillcolor="#399de5"] ;
52 -> 53 ;
54 [label="gini = 0.0\nsamples = 15\nvalue = [15, 0]\nclass = White", fillcolor="#e58139"] ;
52 -> 54 ;
55 [label="gini = 0.0\nsamples = 176\nvalue = [176, 0]\nclass = White", fillcolor="#e58139"] ;
51 -> 55 ;
56 [label="pH <= 3.02\ngini = 0.278\nsamples = 6\nvalue = [5, 1]\nclass = White", fillcolor="#ea9a61"] ;
34 -> 56 ;
57 [label="gini = 0.0\nsamples = 1\nvalue = [0, 1]\nclass = Red", fillcolor="#399de5"] ;
56 -> 57 ;
58 [label="gini = 0.0\nsamples = 5\nvalue = [5, 0]\nclass = White", fillcolor="#e58139"] ;
56 -> 58 ;
59 [label="total sulfur dioxide <= 80.5\ngini = 0.092\nsamples = 144\nvalue = [137, 7]\nclass = White", fillcolor="#e68743"] ;
33 -> 59 ;
60 [label="gini = 0.0\nsamples = 5\nvalue = [0, 5]\nclass = Red", fillcolor="#399de5"] ;
59 -> 60 ;
61 [label="sulphates <= 0.74\ngini = 0.028\nsamples = 139\nvalue = [137, 2]\nclass = White", fillcolor="#e5833c"] ;
59 -> 61 ;
62 [label="density <= 0.991\ngini = 0.015\nsamples = 136\nvalue = [135, 1]\nclass = White", fillcolor="#e5823a"] ;
61 -> 62 ;
63 [label="total sulfur dioxide <= 149.0\ngini = 0.245\nsamples = 7\nvalue = [6, 1]\nclass = White", fillcolor="#e9965a"] ;
62 -> 63 ;
64 [label="gini = 0.0\nsamples = 6\nvalue = [6, 0]\nclass = White", fillcolor="#e58139"] ;
63 -> 64 ;
65 [label="gini = 0.0\nsamples = 1\nvalue = [0, 1]\nclass = Red", fillcolor="#399de5"] ;
63 -> 65 ;
66 [label="gini = 0.0\nsamples = 129\nvalue = [129, 0]\nclass = White", fillcolor="#e58139"] ;
62 -> 66 ;
67 [label="free sulfur dioxide <= 23.0\ngini = 0.444\nsamples = 3\nvalue = [2, 1]\nclass = White", fillcolor="#f2c09c"] ;
61 -> 67 ;
68 [label="gini = 0.0\nsamples = 2\nvalue = [2, 0]\nclass = White", fillcolor="#e58139"] ;
67 -> 68 ;
69 [label="gini = 0.0\nsamples = 1\nvalue = [0, 1]\nclass = Red", fillcolor="#399de5"] ;
67 -> 69 ;
70 [label="total sulfur dioxide <= 101.5\ngini = 0.237\nsamples = 51\nvalue = [44.0, 7.0]\nclass = White", fillcolor="#e99558"] ;
32 -> 70 ;
71 [label="volatile acidity <= 0.31\ngini = 0.486\nsamples = 12\nvalue = [5, 7]\nclass = Red", fillcolor="#c6e3f8"] ;
70 -> 71 ;
72 [label="total sulfur dioxide <= 74.0\ngini = 0.408\nsamples = 7\nvalue = [5, 2]\nclass = White", fillcolor="#efb388"] ;
71 -> 72 ;
73 [label="gini = 0.0\nsamples = 2\nvalue = [0, 2]\nclass = Red", fillcolor="#399de5"] ;
72 -> 73 ;
74 [label="gini = 0.0\nsamples = 5\nvalue = [5, 0]\nclass = White", fillcolor="#e58139"] ;
72 -> 74 ;
75 [label="gini = 0.0\nsamples = 5\nvalue = [0, 5]\nclass = Red", fillcolor="#399de5"] ;
71 -> 75 ;
76 [label="gini = 0.0\nsamples = 39\nvalue = [39, 0]\nclass = White", fillcolor="#e58139"] ;
70 -> 76 ;
77 [label="total sulfur dioxide <= 115.0\ngini = 0.301\nsamples = 65\nvalue = [53, 12]\nclass = White", fillcolor="#eb9e66"] ;
29 -> 77 ;
78 [label="sulphates <= 0.505\ngini = 0.5\nsamples = 24\nvalue = [12, 12]\nclass = White", fillcolor="#ffffff"] ;
77 -> 78 ;
79 [label="pH <= 3.585\ngini = 0.165\nsamples = 11\nvalue = [10, 1]\nclass = White", fillcolor="#e88e4d"] ;
78 -> 79 ;
80 [label="gini = 0.0\nsamples = 10\nvalue = [10, 0]\nclass = White", fillcolor="#e58139"] ;
79 -> 80 ;
81 [label="gini = 0.0\nsamples = 1\nvalue = [0, 1]\nclass = Red", fillcolor="#399de5"] ;
79 -> 81 ;
82 [label="chlorides <= 0.036\ngini = 0.26\nsamples = 13\nvalue = [2, 11]\nclass = Red", fillcolor="#5dafea"] ;
78 -> 82 ;
83 [label="gini = 0.0\nsamples = 2\nvalue = [2, 0]\nclass = White", fillcolor="#e58139"] ;
82 -> 83 ;
84 [label="gini = 0.0\nsamples = 11\nvalue = [0, 11]\nclass = Red", fillcolor="#399de5"] ;
82 -> 84 ;
85 [label="gini = 0.0\nsamples = 41\nvalue = [41, 0]\nclass = White", fillcolor="#e58139"] ;
77 -> 85 ;
86 [label="density <= 0.995\ngini = 0.484\nsamples = 373\nvalue = [153.0, 220.0]\nclass = Red", fillcolor="#c3e1f7"] ;
28 -> 86 ;
87 [label="pH <= 3.335\ngini = 0.11\nsamples = 103\nvalue = [97, 6]\nclass = White", fillcolor="#e78945"] ;
86 -> 87 ;
88 [label="fixed acidity <= 9.95\ngini = 0.041\nsamples = 96\nvalue = [94, 2]\nclass = White", fillcolor="#e6843d"] ;
87 -> 88 ;
89 [label="chlorides <= 0.071\ngini = 0.021\nsamples = 95\nvalue = [94, 1]\nclass = White", fillcolor="#e5823b"] ;
88 -> 89 ;
90 [label="gini = 0.0\nsamples = 1\nvalue = [0, 1]\nclass = Red", fillcolor="#399de5"] ;
89 -> 90 ;
91 [label="gini = 0.0\nsamples = 94\nvalue = [94, 0]\nclass = White", fillcolor="#e58139"] ;
89 -> 91 ;
92 [label="gini = 0.0\nsamples = 1\nvalue = [0, 1]\nclass = Red", fillcolor="#399de5"] ;
88 -> 92 ;
93 [label="volatile acidity <= 0.275\ngini = 0.49\nsamples = 7\nvalue = [3, 4]\nclass = Red", fillcolor="#cee6f8"] ;
87 -> 93 ;
94 [label="gini = 0.0\nsamples = 3\nvalue = [3, 0]\nclass = White", fillcolor="#e58139"] ;
93 -> 94 ;
95 [label="gini = 0.0\nsamples = 4\nvalue = [0, 4]\nclass = Red", fillcolor="#399de5"] ;
93 -> 95 ;
96 [label="total sulfur dioxide <= 153.5\ngini = 0.329\nsamples = 270\nvalue = [56, 214]\nclass = Red", fillcolor="#6db7ec"] ;
86 -> 96 ;
97 [label="volatile acidity <= 0.3\ngini = 0.13\nsamples = 229\nvalue = [16, 213]\nclass = Red", fillcolor="#48a4e7"] ;
96 -> 97 ;
98 [label="sulphates <= 0.645\ngini = 0.165\nsamples = 11\nvalue = [10, 1]\nclass = White", fillcolor="#e88e4d"] ;
97 -> 98 ;
99 [label="gini = 0.0\nsamples = 10\nvalue = [10, 0]\nclass = White", fillcolor="#e58139"] ;
98 -> 99 ;
100 [label="gini = 0.0\nsamples = 1\nvalue = [0, 1]\nclass = Red", fillcolor="#399de5"] ;
98 -> 100 ;
101 [label="residual sugar <= 8.2\ngini = 0.054\nsamples = 218\nvalue = [6, 212]\nclass = Red", fillcolor="#3fa0e6"] ;
97 -> 101 ;
102 [label="gini = 0.0\nsamples = 208\nvalue = [0, 208]\nclass = Red", fillcolor="#399de5"] ;
101 -> 102 ;
103 [label="pH <= 3.145\ngini = 0.48\nsamples = 10\nvalue = [6, 4]\nclass = White", fillcolor="#f6d5bd"] ;
101 -> 103 ;
104 [label="gini = 0.0\nsamples = 6\nvalue = [6, 0]\nclass = White", fillcolor="#e58139"] ;
103 -> 104 ;
105 [label="gini = 0.0\nsamples = 4\nvalue = [0, 4]\nclass = Red", fillcolor="#399de5"] ;
103 -> 105 ;
106 [label="fixed acidity <= 9.15\ngini = 0.048\nsamples = 41\nvalue = [40, 1]\nclass = White", fillcolor="#e6843e"] ;
96 -> 106 ;
107 [label="gini = 0.0\nsamples = 40\nvalue = [40, 0]\nclass = White", fillcolor="#e58139"] ;
106 -> 107 ;
108 [label="gini = 0.0\nsamples = 1\nvalue = [0, 1]\nclass = Red", fillcolor="#399de5"] ;
106 -> 108 ;
}